6.503130495548248291e-02,5.825963616371154785e-02,3.912369906902313232e-02,2.865366451442241669e-02,2.669335575774312019e-03,-1.297407317906618118e-02,-9.759883396327495575e-03,4.581934586167335510e-02,3.636569157242774963e-02,5.518473312258720398e-02,2.986478060483932495e-02,5.435600876808166504e-02,6.870189309120178223e-02,1.236416958272457123e-02,1.017241831868886948e-02,5.696046352386474609e-02,1.753209857270121574e-03,6.622967869043350220e-02,4.205279797315597534e-02,6.465766578912734985e-02,-7.364721386693418026e-05,3.791973739862442017e-02,3.301040828227996826e-02,-7.041597273200750351e-03,8.163638412952423096e-02,-2.743699029088020325e-02,-7.330494467169046402e-03,5.813836585730314255e-03,1.155173126608133316e-02,3.356226161122322083e-02,3.701886534690856934e-02,-8.963130414485931396e-03,1.490147784352302551e-02,8.642741478979587555e-03,7.898205891251564026e-03,6.616740673780441284e-02,3.140765801072120667e-02,2.288924343883991241e-02,1.861621811985969543e-02,-1.930422335863113403e-02,4.474080726504325867e-02,-2.139586955308914185e-02,4.027557373046875000e-02,1.316623948514461517e-02,-1.284711994230747223e-02,1.857156306505203247e-02,1.011464092880487442e-02,6.514243781566619873e-02,-1.341484393924474716e-02,4.491335898637771606e-02,-1.754251681268215179e-02,1.259089354425668716e-02,-8.644454181194305420e-03,2.617498161271214485e-03,2.358100004494190216e-02,8.797400631010532379e-03,8.974778465926647186e-03,3.143880143761634827e-02,-7.062492892146110535e-03,-1.061822846531867981e-02,7.746426761150360107e-02,1.963252015411853790e-02,4.447096586227416992e-02,-4.429484531283378601e-02
