1.033002231270074844e-02,-1.803397387266159058e-02,-2.105555497109889984e-02,3.378794528543949127e-03,1.304958248510956764e-03,8.322083204984664917e-02,1.617251709103584290e-02,4.008939862251281738e-02,3.868824616074562073e-02,-3.809406422078609467e-03,4.203058034181594849e-02,8.330952376127243042e-02,2.211389876902103424e-02,1.227924507111310959e-02,5.854538828134536743e-02,4.913337156176567078e-02,1.639031246304512024e-02,1.953811384737491608e-02,6.481788307428359985e-02,9.839258156716823578e-03,6.806956976652145386e-02,3.741413727402687073e-02,-1.151531096547842026e-02,3.625050559639930725e-02,1.236126478761434555e-02,1.352745480835437775e-02,2.716427668929100037e-02,4.626032710075378418e-02,6.128391250967979431e-02,5.279644578695297241e-02,-1.477999519556760788e-02,2.781682275235652924e-02,5.685892328619956970e-02,-1.138987205922603607e-02,-1.749806106090545654e-02,4.234336316585540771e-02,5.271725822240114212e-03,3.437719494104385376e-02,-5.027159303426742554e-02,2.318388409912586212e-02,-1.403681281954050064e-02,2.222434058785438538e-02,-9.198723360896110535e-03,4.122961312532424927e-02,2.835856191813945770e-02,-1.730875484645366669e-02,8.155869320034980774e-03,-2.186189219355583191e-02,-2.245174022391438484e-03,5.132117494940757751e-02,2.924730814993381500e-02,-1.168543472886085510e-02,-3.606098145246505737e-02,-1.934236288070678711e-02,4.798609763383865356e-02,3.924396261572837830e-02,3.555217757821083069e-02,5.882452242076396942e-03,-1.153204869478940964e-02,5.348934233188629150e-02,-4.006265662610530853e-03,3.156529739499092102e-02,3.267182409763336182e-02,3.410343080759048462e-02,2.283218689262866974e-02,-1.713443733751773834e-02,3.254630789160728455e-02,-6.006780546158552170e-03,2.984817139804363251e-02,4.121236503124237061e-02,2.418318577110767365e-02,1.342760212719440460e-02,6.929914001375436783e-03,3.942316025495529175e-02,2.261834964156150818e-02,3.960086405277252197e-02,5.035218596458435059e-02,2.154284343123435974e-02,-7.186945993453264236e-03,-1.914033317007124424e-03,3.306419029831886292e-02,2.507988177239894867e-02,1.976979896426200867e-02,5.266762524843215942e-02,1.509315986186265945e-02,-4.026534967124462128e-03,3.736197575926780701e-02,2.351902425289154053e-02,1.103169750422239304e-02,4.002867639064788818e-02,1.472390722483396530e-02,3.174393996596336365e-02,3.445100411772727966e-02,1.628200337290763855e-02,5.505434819497168064e-04,5.270284786820411682e-02,2.315423451364040375e-02,-7.011887431144714355e-02,-5.073893815279006958e-03,-4.897225648164749146e-02,-6.552869919687509537e-03,-3.309406712651252747e-02,4.666337743401527405e-03,3.742938488721847534e-02,2.598335780203342438e-02,1.546803954988718033e-02,3.106027655303478241e-02,6.470902357250452042e-03,1.361374929547309875e-02,6.469557993113994598e-03,2.254814468324184418e-02,4.342609271407127380e-02,2.993647195398807526e-02,5.097120627760887146e-02,3.637968003749847412e-02,-9.505985304713249207e-03,-4.676777496933937073e-02,6.699341535568237305e-02,-1.536613423377275467e-02,5.241299793124198914e-02,4.301617294549942017e-02,6.093723699450492859e-02,2.450818754732608795e-02,-4.231007024645805359e-02,1.475308090448379517e-03,2.775242179632186890e-02,-4.234020132571458817e-03,3.116927668452262878e-02
